37 10
and -0.032990 -0.039913 0.041602 0.016628 0.064697 0.037050 -0.047329 -0.025463 0.024876 0.060983
of 0.038606 0.038407 -0.024689 -0.040701 -0.022728 -0.005252 0.029212 -0.028242 -0.026419 0.037696
to -0.021120 0.035830 -0.020327 0.025899 -0.039520 0.021489 -0.013076 0.005606 -0.025810 -0.010268
pumps -0.028586 -0.029789 0.050654 -0.000024 0.058743 0.011504 0.048841 0.006304 0.008929 -0.026672
the 0.034958 0.048705 0.025428 -0.031558 -0.016155 0.039424 -0.001126 0.030688 0.014419 0.036700
in -0.007578 -0.018019 0.010559 -0.008131 0.045139 0.017637 -0.029841 -0.006704 -0.017291 0.030595
pump -0.004252 0.005522 0.034995 -0.025826 0.006829 0.008597 -0.047987 0.010142 -0.003128 0.037233
available -0.029879 0.050124 0.015913 -0.044138 0.043730 0.009140 -0.041517 -0.007068 0.022621 0.058118
a 0.036905 -0.032787 -0.029547 0.022398 0.000042 -0.033960 0.044193 -0.012418 0.028043 0.030814
repair -0.037022 0.021840 -0.023579 0.002898 0.036361 -0.050698 -0.019066 0.036839 0.037305 0.007837
our -0.047872 -0.046869 -0.045936 -0.028250 0.038973 0.003978 0.005416 0.035415 -0.036071 -0.020187
custom 0.034385 0.044984 0.035521 0.034434 -0.036606 0.016896 0.019260 0.010956 0.031711 -0.042456
we -0.052368 0.048686 -0.006232 0.041185 0.019340 0.032196 0.007758 0.015050 -0.017693 0.015883
products -0.045314 -0.003694 0.051780 0.001049 0.025023 -0.020698 0.021604 0.036318 -0.047340 0.027602
or -0.013920 0.021152 -0.023811 -0.046479 0.004455 -0.001740 -0.033656 0.012766 0.007783 0.021613
switches -0.019891 0.035596 -0.039922 -0.033345 -0.021847 -0.039513 -0.031556 -0.014078 -0.002147 0.021932
are -0.032106 -0.022777 -0.039573 0.037243 -0.015225 0.039128 0.011995 0.036078 0.031110 0.034973
for -0.002047 0.032502 0.010733 -0.007860 -0.012258 -0.042079 -0.012660 -0.041351 0.051487 -0.026189
1 0.038554 0.014034 0.027243 -0.015794 -0.023402 0.039807 -0.007769 0.047039 0.017584 0.012646
relays -0.049918 0.059550 0.015572 -0.040995 -0.017179 0.027571 -0.031475 0.010687 0.054669 0.048088
mercury -0.026921 0.061762 0.016381 -0.028347 0.017990 0.024053 0.018935 -0.020351 -0.037458 0.002859
equipment 0.041633 0.004177 0.045465 0.013695 -0.004672 -0.002211 0.009872 0.005030 0.043925 0.045554
systems -0.043679 0.043934 0.004177 0.006249 0.002146 -0.028065 0.038844 0.006891 -0.044163 0.018530
fluid -0.011134 0.045507 -0.030557 -0.039024 -0.032794 0.001137 -0.049048 0.044260 0.034357 -0.045023
up 0.019691 0.037447 -0.021682 -0.034239 0.015548 -0.014146 0.032379 -0.003534 0.031462 0.057776
cascon 0.007249 -0.035152 -0.044270 -0.036602 -0.048070 -0.035995 -0.028646 0.021089 0.004978 -0.044243
control -0.043188 -0.003162 0.028867 -0.018483 -0.033585 0.004125 0.013698 0.003286 0.050438 0.022060
displacement -0.031336 -0.035382 0.045223 0.017543 -0.041390 0.025486 0.024974 0.041884 0.022223 -0.034858
design 0.030446 0.047747 -0.016063 0.018809 0.038983 0.040535 -0.042785 -0.046327 -0.032228 0.042271
that 0.013301 -0.027555 0.027810 -0.045203 -0.021771 0.031184 -0.032120 0.014780 0.004696 0.044803
metering -0.030930 0.002078 0.017084 0.032051 -0.029267 -0.047396 -0.044686 -0.001078 0.013631 0.013383
float -0.023722 0.013544 0.041840 -0.024756 0.047676 0.012763 -0.047036 0.044464 0.022073 0.060480
from 0.049706 0.026842 -0.024326 0.030988 -0.044601 -0.006096 0.043006 -0.020614 -0.023543 -0.040422
positive -0.049430 0.018022 -0.025653 -0.023982 0.002424 -0.044679 0.006708 -0.035872 0.011630 0.021520
valve 0.005895 0.045083 0.010078 -0.049280 0.038988 -0.029149 0.030573 -0.010924 0.038064 0.029797
gas 0.021432 0.034562 0.030257 0.018585 0.043808 -0.017122 0.015948 -0.004342 -0.008686 -0.004445
manufacturing 0.030607 0.036061 0.020043 0.006097 -0.030578 -0.005976 -0.014013 -0.027347 0.009174 -0.018793
