9 800
sent_0 -0.180842 0.137259 -0.051899 0.032714 0.083046 -0.114496 -0.046862 -0.021928 0.086394 -0.057630 -0.120687 -0.043221 -0.025794 0.044495 -0.018687 0.057948 -0.105740 -0.084318 0.154190 -0.015888 -0.011547 -0.032581 0.027041 -0.017880 0.019258 0.067211 -0.035890 0.008556 0.120533 0.027942 0.098063 0.025804 -0.130194 0.022120 0.074740 -0.089988 0.039005 0.037712 0.101512 0.007135 -0.039473 0.031900 0.076969 -0.061070 0.037180 0.029255 -0.020890 0.105417 -0.017660 -0.017015 0.070493 0.041932 -0.152341 -0.034604 0.018101 -0.083011 -0.048906 0.112199 0.084311 -0.107397 -0.069322 0.100986 -0.015480 -0.052869 0.129545 0.068450 0.128945 0.065930 -0.103356 0.037522 -0.181077 -0.082379 0.062035 0.050897 0.128009 0.009616 -0.046779 0.057751 -0.164211 -0.072958 0.060391 -0.064314 0.089315 -0.083322 -0.004599 0.047078 -0.077726 0.017459 -0.113336 0.080970 -0.002868 -0.139640 -0.025578 -0.005523 0.121519 -0.059957 0.049219 0.023374 -0.112752 -0.017931 0.170518 -0.033214 0.084802 -0.030584 -0.113214 0.054854 -0.101096 -0.022171 0.108310 -0.015968 -0.046879 -0.053635 -0.009375 0.028929 -0.074378 0.017413 -0.016198 -0.108968 -0.138830 0.034650 -0.082284 0.135471 0.150273 -0.073864 0.071883 -0.080934 0.025112 -0.049092 -0.054493 -0.065313 0.009150 0.041033 -0.080603 0.109478 -0.030505 -0.025521 -0.057315 0.004908 -0.050075 0.128773 -0.032432 0.182612 0.063957 0.043571 -0.121736 0.095599 -0.183852 -0.029245 0.073602 0.096611 -0.187709 0.125773 0.129924 0.046573 -0.131470 0.093023 -0.053854 0.027096 0.026133 0.033179 -0.010355 -0.013615 -0.069108 0.013411 -0.068376 -0.045239 0.055227 0.056750 -0.041965 -0.098574 0.000837 0.083817 -0.036824 0.043424 0.121295 -0.002818 0.054762 0.067730 -0.144871 -0.005574 -0.051510 -0.029864 0.002458 -0.193025 -0.167164 -0.265699 -0.154280 -0.246419 -0.007005 0.014203 -0.039317 -0.002934 0.129977 0.128749 -0.045495 0.026338 -0.025275 -0.126591 -0.010044 -0.008589 -0.046356 -0.026100 -0.042072 -0.047459 -0.045685 0.108200 0.074322 0.082895 -0.081270 0.131566 -0.007039 -0.014662 -0.029799 -0.081482 -0.017639 0.121601 0.023533 0.029288 0.062829 0.025588 -0.030651 0.093043 0.118277 -0.025539 -0.017379 -0.099265 0.046092 -0.053178 0.109799 -0.057140 -0.001804 0.119525 0.026620 -0.021225 -0.117990 0.057365 -0.036017 -0.052787 -0.099059 0.074908 -0.132612 -0.058681 0.057208 -0.043305 -0.049913 0.014450 -0.070631 -0.083025 -0.093344 -0.124715 0.051676 -0.107754 -0.089836 0.106491 0.073949 -0.219795 -0.014577 0.046178 0.013806 0.093009 -0.132061 0.064945 -0.017676 0.098689 -0.097027 0.023283 0.113572 0.029451 0.069151 0.027330 0.035270 0.037611 0.121824 -0.015538 -0.051076 0.007744 0.143078 -0.018834 0.055152 0.012474 0.074939 0.040734 0.025681 0.047078 0.010918 0.085632 -0.013286 -0.072462 -0.050782 -0.220827 -0.070875 -0.017415 -0.033711 0.024471 0.174272 -0.012790 0.048578 -0.044346 -0.039057 0.030054 -0.024781 0.062100 -0.063542 -0.088818 0.055602 0.050490 0.062406 -0.016398 0.030837 0.069025 -0.025050 0.029395 -0.092714 0.021306 0.025043 0.030636 0.072363 0.031457 -0.073697 -0.009219 0.078262 0.080962 0.048009 -0.012028 -0.034566 -0.067563 0.106301 -0.002766 0.018241 -0.056453 -0.032132 -0.055735 -0.072576 -0.056010 0.044890 0.131839 0.117957 0.092277 -0.138927 0.023232 0.080415 -0.145815 0.102227 -0.074305 0.001727 0.037281 0.011826 0.098810 0.106418 -0.023838 0.071150 0.008822 0.115861 0.013167 0.082255 0.060088 -0.001365 0.019974 0.010038 0.173109 -0.015753 0.100776 -0.056376 -0.032571 0.087895 -0.004501 0.103874 0.048767 0.028399 -0.010004 0.000602 0.001974 -0.022383 0.125651 -0.063213 0.014797 0.032246 -0.078799 -0.028739 0.056590 0.232262 0.107183 0.077234 0.073011 -0.042783 0.084873 -0.064453 0.025725 0.074549 -0.015623 -0.019305 -0.030577 -0.010468 0.027780 0.037774 -0.028261 0.127628 -0.002442 0.026632 0.107870 -0.144570 0.029509 -0.067787 -0.058962 -0.075959 0.003867 -0.090036 -0.003548 -0.112117 -0.010320 0.003352 -0.018298 0.021094 -0.082537 -0.070145 0.053745 0.000382 -0.043592 -0.003505 -0.007856 -0.110511 -0.057353 0.015058 0.025494 0.008362 0.063327 0.078062 0.046130 0.074058 0.047034 0.057509 -0.032669 -0.007874 -0.139144 -0.045817 0.015370 -0.047867 0.041520 0.078230 0.031521 -0.020457 0.001597 -0.053312 -0.071905 -0.012955 -0.087240 0.077860 0.014900 -0.055294 -0.030781 -0.263428 -0.003561 -0.113691 -0.007009 -0.086275 -0.083354 0.034698 0.071971 0.046215 0.020378 -0.006801 -0.040626 0.217145 -0.045058 0.072966 -0.023662 0.112963 -0.130153 0.015809 -0.090025 -0.057935 0.085033 -0.032809 0.002967 -0.078101 0.007157 -0.063174 0.012172 0.043236 -0.016179 -0.041472 -0.145591 0.037072 0.027967 0.080607 -0.119168 -0.112281 -0.054672 0.116594 -0.023167 -0.070594 0.174123 -0.031205 -0.108026 0.070034 -0.103619 -0.029297 -0.135867 0.032769 -0.099591 -0.015212 -0.027782 0.022376 -0.024382 -0.020652 -0.077493 -0.122010 -0.025511 0.011500 0.008885 -0.061329 0.037661 0.050258 0.024292 0.006466 0.041848 0.001231 -0.035866 -0.051389 0.171158 -0.054591 -0.009201 0.160451 -0.120149 -0.080300 0.089564 0.005154 0.029097 -0.028862 0.089755 -0.070289 0.171227 0.101976 -0.074551 0.090028 -0.185288 -0.021519 -0.116885 -0.085260 -0.006326 0.084788 0.058898 0.035876 -0.077192 -0.010759 -0.018246 0.113484 -0.072523 0.059711 0.070056 0.100081 0.025967 0.035256 0.051449 -0.013665 0.072529 -0.052323 0.005484 -0.024642 -0.054942 0.009077 -0.057682 -0.098165 -0.001794 0.028996 -0.028979 -0.031769 -0.034002 0.093624 0.076759 -0.047744 0.000058 -0.097019 -0.080176 0.121777 -0.099326 -0.106111 -0.027193 0.113468 -0.028574 -0.020454 -0.013137 -0.036299 0.022993 -0.024461 0.013787 0.014559 0.173362 -0.089953 0.017115 0.071861 -0.020121 0.022655 -0.025044 -0.164630 0.051940 -0.042839 -0.044592 0.073839 -0.038903 0.061272 0.068885 0.136057 0.031020 0.051999 0.164648 0.001410 -0.022005 -0.135415 -0.049444 0.012544 0.114455 -0.036322 -0.066064 0.014625 -0.052899 -0.039400 -0.181457 -0.132798 -0.210515 0.118307 0.153752 -0.117877 -0.020138 0.017791 -0.125648 -0.076172 -0.168607 -0.044533 -0.068982 -0.076179 -0.018563 0.011392 0.131359 0.067821 -0.149881 -0.041542 -0.008782 -0.001169 0.096125 0.032570 0.016378 0.114720 -0.015723 0.141763 0.007592 0.045239 -0.154610 -0.093038 0.029356 -0.126579 0.138668 -0.027846 0.032880 -0.053944 0.000741 0.077488 -0.080764 -0.083630 -0.028331 0.049106 0.056648 -0.014329 0.014834 0.037903 -0.065224 -0.036845 0.170308 0.062312 -0.058240 -0.020996 0.112339 0.047992 0.036181 -0.008855 -0.096027 -0.162103 -0.092289 -0.000278 -0.131299 0.198431 0.030902 0.091371 0.020018 -0.016978 0.025208 0.063893 -0.015751 -0.149001 -0.025865 0.064915 -0.062810 -0.070492 0.074681 -0.000896 0.017633 0.042432 -0.144043 0.172595 -0.053339 -0.253872 0.108362 -0.094575 -0.056928 0.041286 -0.020652 -0.062055 0.057455 -0.103036 -0.017866 0.054964 0.088757 0.011155 0.042953 0.082467 0.013976 -0.067950 -0.038023 -0.049591 -0.085900 -0.034395 -0.037892 0.000658 -0.065811 0.091381 -0.049614 -0.000361 0.016375 -0.000267 -0.036819 0.078759 0.188854 0.008175 0.087772 0.058500 -0.043741 0.008100 0.099575 0.027054 -0.006034 0.081151 0.077414 0.071697 -0.034749 -0.050473 -0.004476 0.098059 0.090802 0.103540 -0.104065 0.016768 0.132651 0.142641 -0.126274 0.020597 0.070329 -0.066625 -0.094245 0.045699 0.001695 -0.070927 0.123772 0.021432 0.038431 -0.026864 0.072668 0.039853 -0.143676 0.019328 0.018027 -0.019142 -0.057100 -0.107450 0.003335 -0.017049 0.005095 -0.003642 0.053179 -0.009700 -0.089485 -0.031698 0.033826 0.004887 0.203091 -0.113426 0.121686 -0.120017 0.144754 -0.112858 0.093888 0.125708 0.090270 0.097251 -0.082651 0.019238 -0.168334 -0.109166 0.043536 0.003123 -0.011718
sent_1 -0.230108 0.112688 -0.052780 -0.101541 0.021898 -0.092755 0.003569 -0.134476 -0.014264 0.141190 -0.006857 0.013895 -0.009004 0.053046 0.023526 0.027874 -0.164169 -0.050505 0.229329 0.086745 0.074004 0.107487 -0.019603 -0.014428 0.118659 0.048490 0.047879 0.016276 0.036931 -0.098045 0.042598 0.025897 -0.115181 -0.049332 0.035924 -0.044420 -0.067598 0.058682 -0.019390 0.030884 0.023587 -0.008728 -0.000011 0.127594 0.106291 0.055846 0.055083 0.066556 0.070550 -0.098628 0.052593 0.052511 -0.158065 -0.045013 -0.017768 -0.160104 0.051352 -0.087895 0.009668 0.117361 -0.149150 0.072805 -0.121459 -0.258455 0.079110 0.160823 0.005380 0.069299 -0.083990 0.077346 -0.081389 0.051969 0.065896 0.030706 -0.053205 -0.040771 -0.094663 -0.145168 -0.095964 0.011536 0.115895 0.148138 0.038533 -0.004233 -0.022074 -0.030407 -0.110794 -0.092458 -0.110359 -0.014993 -0.069780 0.033896 -0.096928 0.145868 -0.067974 -0.084176 -0.129095 -0.177302 -0.008517 0.047383 0.051282 -0.040009 -0.149310 0.069060 -0.173760 0.104243 -0.172221 -0.009973 0.052064 -0.174170 0.056215 0.088526 0.068416 0.052591 -0.135496 0.035362 0.015604 0.048595 -0.109639 -0.004011 0.032777 0.133759 0.090491 -0.166837 -0.136326 0.127285 0.139987 -0.045431 -0.065324 -0.014722 -0.003394 0.110138 -0.143073 0.029554 -0.024318 0.029824 -0.018834 0.075041 -0.006446 -0.004263 -0.065411 0.029675 -0.113364 -0.052209 -0.024463 -0.038491 -0.138013 0.023659 -0.028011 0.068521 0.062165 -0.017556 -0.013730 0.125223 -0.011362 0.011248 -0.110151 -0.066456 0.047765 -0.126486 0.039002 -0.059102 -0.146207 0.145609 -0.048128 -0.011748 0.100857 -0.043037 -0.087944 -0.173348 -0.006784 0.016592 -0.136956 0.064291 0.013414 0.094731 -0.030516 0.027838 -0.099283 -0.056289 0.029990 0.070189 0.237381 -0.011632 -0.083201 -0.069547 -0.155825 -0.066654 0.128782 0.044076 -0.022035 -0.148102 -0.067149 0.040908 0.147073 -0.013648 -0.117933 0.060634 0.010855 0.049098 -0.071634 0.069673 -0.145078 -0.140615 0.072648 0.013517 0.109160 0.193648 -0.092624 0.115143 0.083031 0.018743 0.031840 -0.112913 -0.091957 0.059931 0.164283 0.069450 0.065826 -0.048242 -0.016669 0.047617 0.200052 -0.069918 -0.012363 -0.081026 0.022107 0.032626 -0.015354 0.093174 0.109874 -0.007983 0.042893 0.115570 -0.078338 -0.101479 0.075670 0.115886 -0.112649 0.060303 0.066044 -0.211427 0.087700 0.077296 0.043210 0.118177 -0.137413 -0.095916 -0.196566 -0.104089 -0.094891 -0.104387 0.119136 -0.009391 0.052300 -0.145314 0.057925 -0.085904 -0.006644 -0.006516 -0.170408 0.002641 0.040739 0.055721 -0.215725 0.210691 -0.054125 0.067321 -0.123922 0.010152 -0.060224 -0.032614 0.071081 -0.013534 0.038581 -0.006546 0.058800 -0.085676 0.017429 -0.055758 0.030141 -0.036691 0.092918 0.051486 0.066662 0.055314 0.075204 -0.136294 0.062532 -0.040164 -0.053046 -0.094179 0.004057 -0.238441 -0.097777 0.059257 -0.008166 -0.058248 -0.069813 0.134789 -0.108394 -0.037573 -0.038739 -0.227725 -0.009275 -0.036881 -0.063925 0.054919 -0.007235 0.162589 0.051472 0.140688 -0.055144 0.049163 0.049048 -0.176586 0.098160 0.054137 0.110708 -0.045232 -0.048862 0.145170 -0.000850 -0.107842 0.109008 -0.011995 0.036362 -0.032691 0.024929 0.079272 0.000964 0.022172 0.079792 -0.005597 0.002998 -0.124154 0.129690 0.077073 -0.095364 0.026396 0.086400 -0.034443 0.118366 0.032580 0.169699 0.005042 -0.026864 0.031043 -0.027140 -0.065675 0.124259 0.129007 0.180068 0.014210 0.027804 0.021365 0.074656 -0.016457 0.164999 0.217643 0.045039 -0.003613 0.001195 -0.180880 -0.023516 -0.003768 -0.084342 -0.041308 -0.110999 -0.084659 -0.045294 0.037191 -0.075013 0.051961 0.014694 0.072015 -0.111082 -0.225854 0.004165 -0.095964 0.161374 0.120246 0.025521 -0.083376 -0.037891 0.087965 0.070344 -0.026872 -0.024297 0.030167 0.063615 0.107494 0.035527 0.014499 -0.006010 -0.078614 0.151288 0.069753 -0.010775 -0.016489 -0.056698 -0.036989 -0.093976 0.106722 -0.055941 -0.003667 -0.142000 0.016619 -0.095776 0.020144 -0.009039 -0.032438 -0.047173 -0.097836 -0.065551 -0.192043 0.077328 -0.196531 0.063093 -0.059828 0.012690 -0.086472 0.007917 0.020524 0.053189 0.166478 0.015535 -0.002187 0.065652 -0.073414 0.057993 -0.024243 0.161933 -0.182963 -0.089935 0.028386 -0.081099 -0.066770 0.023523 -0.120783 0.025181 0.074717 -0.020885 0.049873 0.109704 -0.075870 -0.045782 -0.155200 -0.055333 -0.205363 -0.066741 -0.165100 -0.113579 -0.050116 0.088113 -0.124724 -0.015650 -0.075866 0.100266 0.068789 -0.013012 -0.146658 0.184584 -0.005002 0.030775 -0.045729 -0.001361 0.102007 -0.061272 0.001290 -0.001210 0.041205 -0.162657 0.028360 -0.136822 -0.043294 -0.161512 0.064679 0.045218 0.108988 0.059613 -0.039470 -0.029969 -0.072117 0.068218 -0.039023 0.036957 -0.004190 0.038011 -0.005582 -0.020341 -0.039768 -0.076335 0.000191 0.129314 0.067733 0.058161 -0.069404 0.215412 -0.003831 0.019713 -0.007659 0.052261 0.157099 -0.100260 0.043818 -0.114819 0.055379 0.162733 0.074798 -0.032334 0.081569 -0.106607 -0.035617 -0.094490 0.045300 0.065802 0.082167 0.053839 0.008017 0.050235 0.062305 0.034442 -0.081486 -0.013438 0.039101 -0.082189 0.052472 0.118088 -0.007203 -0.194639 0.124544 -0.100933 -0.059007 0.083860 0.087803 0.033091 -0.027586 0.032513 -0.020802 0.139583 0.103796 -0.057242 -0.126702 -0.075796 -0.099486 0.080840 -0.027931 -0.068891 0.114270 0.040131 -0.052237 -0.072509 -0.017052 -0.150160 0.060222 -0.097855 0.177138 -0.112536 -0.039486 0.072792 0.045251 0.047246 0.066723 0.085432 0.006894 -0.177832 -0.049208 -0.047365 -0.015083 -0.021223 -0.036335 -0.004523 0.005382 0.100567 -0.132649 -0.077664 -0.048163 -0.052436 0.058980 -0.009627 0.067198 -0.188644 0.028071 -0.060211 0.018374 0.129932 0.118602 -0.066137 0.036956 0.136081 -0.157622 -0.026035 -0.005593 -0.006694 -0.143682 0.080749 0.209120 0.044345 -0.050835 -0.022872 0.101896 0.146327 0.064745 -0.016298 0.015318 -0.027221 -0.056589 -0.237094 -0.124455 -0.005807 -0.000064 0.022062 0.064376 0.007759 -0.042185 -0.065344 -0.179568 0.009755 0.029366 0.005527 -0.017083 -0.091416 -0.186566 -0.072895 -0.175555 -0.143584 -0.100194 -0.046872 0.096112 0.143101 0.074876 -0.140546 0.153157 -0.036838 0.043239 -0.020038 0.009204 0.157005 0.159648 0.026983 0.116822 0.001606 -0.054285 0.030568 0.064561 0.119252 -0.102118 0.004539 0.106111 0.025901 0.077702 -0.096805 0.066951 0.082517 0.121934 0.070457 0.040301 -0.167315 0.046027 0.002674 -0.027112 0.012428 -0.028334 0.009529 0.008420 -0.127483 0.086412 0.099436 0.043936 -0.001888 -0.057521 0.056992 0.094144 0.036858 0.052758 -0.002913 -0.031476 0.083001 -0.083856 0.139284 0.017094 -0.090328 0.152989 0.042515 -0.031257 0.166976 -0.052280 0.013927 -0.107763 -0.113011 0.042364 -0.041544 -0.022492 -0.064736 -0.064288 0.041451 -0.052429 0.074203 0.046794 -0.137484 0.165807 -0.101574 -0.004769 -0.005329 0.230816 -0.040258 -0.037488 0.085585 0.131719 0.065438 0.011613 0.075113 -0.011601 0.101304 -0.011648 -0.166745 -0.180456 0.081670 -0.115107 -0.066489 0.023493 0.087825 -0.117798 0.094299 -0.062518 0.068110 0.020638 -0.017805 0.102153 -0.089054 0.113437 0.119049 -0.055903 0.023864 -0.031753 0.040449 0.003255 -0.052094 0.029561 0.024986 0.005760 0.232341 -0.056981 0.032099 0.084353 0.033276 0.100834 0.084282 -0.020332 0.108659 0.126257 0.017084 -0.102986 0.129775 -0.154625 -0.006835 -0.077464 0.004418 -0.006432 -0.101174 0.018309 0.052442 0.146250 -0.123275 0.052192 -0.008769 -0.219349 -0.135991 -0.010043 0.055505 0.088911 0.054180 -0.096818 0.079671 0.073370 0.104110 -0.073472 -0.095916 0.040621 -0.011068 -0.143637 -0.008818 0.186123 -0.014633 -0.038492 -0.055226 -0.032299 -0.164750 0.068641 0.093235 0.163176 0.109436 0.099794 0.050487 0.089600 -0.040201 0.045447 0.003218 -0.042693
sent_2 -0.238318 0.104029 -0.014332 -0.050784 -0.109307 -0.003367 0.026780 -0.263416 -0.126496 0.023187 0.053325 0.069986 -0.066668 0.067274 -0.042937 -0.003461 0.005706 -0.019398 0.069831 0.227110 0.114011 0.021873 -0.076603 0.043750 0.106273 -0.041896 0.141261 -0.001540 0.102447 -0.031907 0.010075 0.192711 -0.117593 -0.154857 0.098388 -0.063932 -0.030349 -0.061916 -0.142669 0.026061 0.015140 0.030234 -0.073509 0.083196 0.132010 -0.001171 -0.019161 -0.048723 0.103180 -0.061527 -0.073011 -0.000045 -0.018172 0.059297 0.075141 -0.197560 0.163844 -0.058764 -0.046697 -0.020234 -0.127365 -0.090733 -0.010966 -0.140785 -0.005881 0.294642 0.063545 0.077646 0.002627 0.025588 0.019667 0.089341 0.002432 0.017308 -0.087756 -0.079200 0.002513 -0.063279 -0.094319 0.043006 0.088491 0.067589 0.022618 -0.160155 0.041412 -0.091028 -0.054354 -0.092040 0.078611 -0.063789 -0.163555 -0.025171 0.030093 0.149823 -0.006673 -0.072371 -0.044906 0.000767 0.029792 0.153264 0.012798 0.042986 -0.092844 0.032071 -0.085090 0.157075 -0.063368 -0.032111 0.102530 -0.057934 -0.036129 0.096069 -0.000141 0.062287 -0.113682 -0.130583 -0.125196 0.037723 -0.088715 -0.096110 0.063062 0.127185 0.005615 -0.095721 -0.120721 0.023303 0.016500 0.026140 -0.022949 0.053822 -0.052659 -0.079813 0.077937 0.009803 -0.012393 0.172157 0.011368 0.013500 -0.069702 0.021236 -0.018564 -0.007468 -0.207322 -0.079965 -0.007384 0.076398 -0.135277 0.066697 -0.089109 -0.093084 -0.096803 -0.017576 0.045973 0.054595 -0.034166 -0.048865 -0.077437 -0.017677 -0.015177 -0.119603 0.069309 0.034687 -0.288549 -0.030562 -0.056468 -0.008980 0.073783 -0.202087 -0.039831 -0.143868 -0.193022 0.010205 -0.163236 0.023276 -0.060652 0.046878 0.039355 0.054345 -0.100601 0.078422 0.001214 0.106332 0.227818 0.039222 -0.030013 -0.044655 0.025020 -0.023687 0.180762 0.012106 0.071309 0.088152 -0.058488 0.045056 0.056867 0.088410 -0.111087 -0.031800 0.231566 0.076535 0.132250 -0.040023 0.019614 -0.153736 0.109145 0.047574 0.198633 0.082209 -0.052129 0.012934 0.122115 0.041413 0.051589 0.054512 -0.044588 -0.054698 0.083298 0.019784 0.023415 -0.035558 0.087849 0.062432 0.165152 0.008347 -0.045491 -0.078838 -0.126911 0.011483 0.035055 0.129786 0.084670 0.012793 0.070199 0.097242 -0.043879 0.047213 0.007270 -0.065390 0.011878 -0.018502 -0.058527 -0.154670 0.158085 -0.088387 0.165299 0.101625 -0.231211 -0.140269 -0.087732 0.023083 0.022894 -0.079546 0.122919 0.022379 0.116041 -0.233358 0.090586 -0.074155 0.000491 0.020256 0.025297 -0.137730 -0.012721 0.062057 -0.235782 0.125314 -0.012638 0.015829 -0.275565 0.060004 -0.138757 0.023235 0.112740 0.042729 0.018470 0.026820 0.014231 -0.048196 -0.071235 -0.037942 -0.003616 -0.007635 0.042627 -0.011148 -0.027156 -0.135348 -0.032448 -0.134394 0.165236 -0.009712 -0.103122 -0.175017 0.044903 -0.156171 -0.181034 -0.006785 0.041231 -0.135673 0.025096 0.119355 -0.122776 0.151187 -0.016238 0.044482 0.171395 -0.050271 -0.089982 0.127697 -0.071473 0.108674 0.064950 -0.003429 0.033876 -0.088533 -0.022516 -0.232374 0.082224 0.076982 0.185072 -0.043450 0.032325 0.092003 0.092384 -0.060475 0.061068 -0.054420 0.086663 0.122655 0.067483 0.168824 -0.006701 -0.043511 -0.096326 -0.016110 -0.064864 -0.010443 0.149502 0.184764 -0.060813 0.000058 0.037155 -0.137259 0.040962 0.059875 -0.052452 0.133383 -0.053367 0.030802 0.005388 -0.089863 0.029727 0.056242 0.110506 0.050028 -0.021158 -0.006091 0.062907 -0.031019 -0.037677 0.059270 0.027305 0.021278 0.151032 -0.104502 0.017214 -0.020400 -0.003602 -0.044482 -0.160538 -0.118481 -0.075794 -0.066156 -0.146867 0.023643 -0.002063 -0.068108 -0.194300 -0.195253 0.112525 -0.107911 -0.029646 -0.065263 -0.001338 -0.077828 -0.130597 -0.015447 -0.072487 -0.007512 0.035193 0.093272 0.066994 0.109547 0.049190 0.052793 0.027632 -0.060996 0.000661 0.068550 -0.099543 0.033251 0.047843 0.087783 -0.059036 0.191901 0.076292 -0.022789 -0.046124 -0.113390 -0.053849 0.092603 0.050669 -0.012883 -0.057580 -0.010240 -0.039059 -0.141562 0.184060 -0.119174 0.094262 0.053711 0.097987 0.073590 0.000219 -0.002317 0.004947 0.109357 0.110733 -0.051124 -0.023241 0.050068 -0.003626 0.053321 -0.009430 -0.110434 -0.203809 -0.075927 0.009579 0.011867 -0.131972 -0.054675 -0.037993 0.000442 -0.038156 0.191538 0.135544 -0.163807 0.118504 -0.166059 0.031961 -0.108942 -0.042603 -0.136309 -0.086695 0.132755 0.137258 -0.050157 0.050845 -0.179438 0.082733 0.099359 0.115971 0.003138 0.141434 -0.142137 -0.067925 0.141698 0.001279 0.150420 0.031848 0.110755 0.073991 0.134983 -0.131049 0.000042 -0.010039 -0.062322 -0.004238 0.130074 0.040459 0.170358 -0.014132 0.004524 -0.090832 0.020370 -0.136797 -0.053461 -0.111313 0.017382 0.019299 -0.129011 0.163792 -0.108524 -0.160469 -0.020127 0.043117 0.033509 0.115312 -0.084862 0.172642 -0.062590 0.035118 -0.029242 0.041784 0.079545 -0.161691 -0.128724 -0.065865 -0.028640 0.055631 -0.049638 0.052398 -0.014726 -0.065352 -0.007586 -0.066183 0.126055 0.116595 0.046824 -0.050218 0.022508 0.133682 0.086678 0.007348 -0.045988 -0.073384 -0.037257 -0.212394 0.163654 0.134079 -0.030368 -0.046141 0.094423 -0.084913 0.059646 0.132800 0.016553 0.092291 0.003322 0.030626 0.015780 0.086024 0.027251 -0.011000 0.050982 -0.158583 -0.090968 0.077401 0.163677 0.000801 0.084317 0.062833 -0.046136 -0.129672 -0.087437 -0.007127 0.164812 0.022080 0.044109 0.052122 -0.032106 0.055359 -0.084287 -0.035093 -0.029211 0.022610 -0.063015 -0.104678 0.050981 -0.112775 0.173367 -0.027140 0.052160 0.036134 0.104715 0.021090 -0.047974 -0.068775 -0.039914 -0.216264 0.046305 -0.146715 0.086238 -0.152529 0.109353 -0.075387 -0.062077 0.117695 0.007194 -0.023446 0.137953 0.043883 -0.230483 -0.069711 0.027707 -0.117505 0.150433 -0.028021 0.141251 -0.074582 -0.145794 0.024925 -0.060649 0.001680 -0.038646 -0.092131 0.023049 0.099924 -0.061826 -0.159689 -0.042632 -0.052393 0.035833 0.023871 0.056937 -0.025032 -0.039373 -0.173195 -0.050887 0.032109 0.038395 0.091936 0.005242 0.014268 -0.210512 0.043305 -0.065684 0.028448 -0.095805 -0.009304 -0.000666 -0.000970 -0.137069 -0.089099 -0.002501 -0.069865 0.062826 0.079014 0.161951 0.025037 -0.033886 -0.079565 0.222542 0.063025 -0.057886 0.015601 0.029016 -0.016669 -0.046623 0.052002 0.095459 0.047062 0.090463 -0.091796 0.098973 0.073725 -0.016715 0.007680 -0.001088 -0.092434 0.043100 0.010282 0.108928 -0.055292 0.090070 0.136747 0.063854 -0.076658 0.030677 -0.049031 0.085070 -0.016225 0.036400 -0.029499 0.031238 0.012584 0.109178 0.072552 0.014378 -0.003848 -0.140554 0.094789 -0.146913 -0.175412 0.062419 -0.138519 0.045827 0.157327 -0.131600 0.116437 -0.112747 -0.045623 -0.086365 -0.076001 0.017123 -0.176243 -0.167901 -0.068295 -0.057635 0.042693 0.129844 -0.172730 -0.116355 0.004076 0.021942 -0.076673 0.138859 0.069585 -0.027972 0.115149 0.094176 -0.076145 -0.026388 0.114698 0.076534 0.023287 0.041288 -0.054263 0.047338 0.225637 -0.106949 -0.068472 -0.081369 0.127440 -0.174978 0.098342 0.108428 0.022274 0.004203 0.031337 -0.037520 0.046901 0.081799 0.049989 -0.057265 -0.103245 -0.001856 -0.010098 -0.011136 -0.035895 -0.035449 0.064743 0.029261 0.181416 0.096698 0.055083 0.041983 0.007030 0.077179 0.132425 -0.103943 0.093417 0.048434 0.139182 -0.013208 0.079355 -0.036141 0.040146 -0.067318 -0.029944 -0.087064 -0.033330 -0.069818 -0.096066 0.032064 -0.093311 0.113777 -0.006134 0.005425 0.114310 -0.104187 -0.047096 -0.106009 0.036634 -0.031478 0.011667 0.101825 -0.009291 0.076923 0.067276 -0.030484 0.071907 -0.065389 0.049600 0.160802 -0.046216 0.210237 -0.031570 0.002655 -0.148755 0.046014 -0.085484 -0.022289 0.135510 0.124778 -0.121740 -0.114469 -0.092753 0.019937 -0.095196 -0.154149
sent_3 -0.065704 0.109706 -0.143498 0.105173 -0.024397 -0.129348 0.000284 -0.036282 -0.003712 0.102687 0.060733 -0.097304 0.053099 -0.012647 0.037581 0.098455 -0.042254 -0.042450 -0.059419 -0.059938 0.086060 -0.080113 0.153936 0.044164 -0.173905 -0.074660 -0.005435 -0.040187 -0.062807 0.151284 -0.024037 -0.083393 0.060722 0.045110 -0.039359 -0.019041 -0.047752 0.020020 0.005891 0.103721 0.002934 -0.025957 0.010456 -0.040806 -0.001355 -0.016797 -0.087199 -0.024816 -0.035603 0.048681 0.023627 0.047309 -0.047325 -0.115059 0.018522 0.116279 -0.104343 0.102511 0.108320 -0.115135 0.022815 0.083542 -0.058070 0.073370 0.064622 -0.199141 0.005429 0.058727 0.012039 0.063181 -0.043988 -0.065557 -0.027034 -0.030895 0.144125 -0.107436 0.084484 0.089860 0.131093 0.071539 0.014232 0.039198 -0.072206 0.085193 -0.010315 0.011024 0.018884 0.026531 0.027965 0.101540 0.165573 0.040176 -0.009758 -0.063866 0.022974 -0.010911 0.021214 -0.002034 0.005346 -0.027343 0.025330 -0.010222 0.113807 0.036837 0.096456 0.021741 -0.070102 0.066881 0.075922 -0.000482 -0.000338 -0.086126 -0.039976 0.021926 0.078361 0.011130 0.016559 0.024455 -0.079955 -0.033984 0.076595 0.020439 -0.080660 -0.048202 -0.070006 -0.063624 0.053548 0.067344 -0.024916 -0.012229 0.074726 0.063996 -0.008565 0.074809 0.043294 -0.065884 0.009149 0.032074 0.076377 -0.059084 -0.096954 0.114016 0.151307 -0.027027 -0.032332 0.070669 0.046055 -0.111407 0.033599 -0.000962 0.030660 -0.008787 0.030554 0.150628 0.126858 -0.034405 -0.053453 0.110801 0.006864 -0.037839 -0.001399 -0.080223 0.138882 -0.058495 0.018226 0.053606 0.143591 0.172846 0.002963 0.022208 0.012016 -0.045810 -0.047333 0.006303 -0.011729 0.001706 -0.076329 0.068952 0.043927 -0.049730 0.038731 -0.107539 -0.002459 -0.147970 0.107275 -0.071490 -0.024289 0.041764 -0.175770 0.047472 -0.065732 -0.005554 -0.045246 -0.039059 -0.004845 -0.051487 0.005396 0.002404 -0.135501 -0.006018 -0.064086 -0.030166 0.037917 0.094609 0.004731 0.044674 0.022633 -0.024665 0.004599 0.027181 -0.104644 -0.080172 -0.086863 -0.095135 -0.006864 0.115571 0.105808 0.080695 -0.080346 0.038429 -0.064665 -0.002494 -0.085398 -0.011144 -0.088079 -0.009971 0.046637 0.246366 -0.085621 -0.020163 0.036326 0.044001 0.083866 -0.064722 -0.088954 0.081792 -0.064858 0.033543 -0.128375 -0.019296 0.005343 0.024641 -0.031176 0.039998 0.047816 0.040595 -0.031438 0.157020 0.003559 0.030358 0.037095 -0.071005 -0.086494 -0.011336 0.055123 0.032071 0.012513 -0.007181 0.032712 0.007526 -0.071902 -0.004601 -0.082640 0.012977 0.085767 -0.059347 0.013598 -0.025003 0.036246 -0.144914 -0.069346 -0.019028 -0.153482 -0.039450 -0.147741 -0.017882 -0.040317 -0.097809 0.180473 0.088372 0.090808 -0.088990 -0.059414 0.064329 0.042449 0.109359 0.000658 0.023832 -0.188506 -0.088658 0.058423 0.063604 -0.093960 0.029326 0.057768 -0.009892 -0.029384 -0.018109 -0.053305 -0.071490 0.128391 0.030760 0.027739 -0.026884 -0.061747 0.070559 -0.024485 0.071917 0.040669 -0.029063 0.029132 -0.046595 0.039163 -0.000234 0.025943 0.032515 -0.015588 -0.025482 -0.199907 -0.107298 0.042133 -0.017246 0.014301 -0.005141 -0.104888 -0.086368 0.016193 -0.015480 -0.102052 -0.102120 0.052646 -0.077454 0.024819 0.096427 -0.023432 0.022111 0.053214 -0.030163 -0.037984 0.035826 0.019758 0.012917 -0.061205 -0.107979 0.009943 -0.104624 -0.007088 0.036221 0.015355 0.245309 0.019634 0.077895 -0.104895 0.002243 -0.043178 -0.023985 0.024146 0.163430 0.061907 0.062060 -0.204494 0.048739 -0.104002 0.034360 0.066542 0.102988 -0.062625 0.118570 -0.024272 0.038263 0.049446 -0.063852 0.022973 0.037760 0.033619 0.053984 0.033524 0.012431 -0.053160 -0.014280 -0.065016 0.002531 -0.013095 -0.043447 0.116314 0.063286 -0.020629 -0.069462 0.207747 0.057200 -0.004432 0.030604 -0.045416 0.057448 0.003355 -0.041081 0.046698 -0.103547 0.045781 -0.031425 -0.018589 -0.094777 -0.021582 0.004689 -0.061716 -0.026507 -0.002033 -0.094248 -0.026930 0.044647 0.031217 0.080804 0.027628 0.023205 0.021635 0.041284 -0.057772 -0.026769 -0.045842 -0.040191 0.044885 0.057375 -0.136204 0.000947 -0.116362 0.023576 0.115397 0.072217 0.144126 0.068683 -0.037713 0.074712 -0.126386 0.020919 0.072688 -0.099747 -0.057653 -0.008843 -0.113480 0.058927 0.006377 -0.014210 0.026769 -0.003202 -0.003920 0.098105 0.043522 0.124115 0.054325 -0.012494 -0.101073 0.001121 -0.023281 -0.022785 -0.033127 -0.002323 0.075268 0.068316 -0.017327 0.009145 -0.100374 0.120358 0.100106 -0.004565 0.102374 0.017091 -0.003470 -0.068566 0.102971 -0.068768 0.062720 -0.034726 0.095554 0.142011 0.125761 0.103838 -0.030274 -0.062240 0.149421 0.001701 -0.083240 -0.029537 0.057119 0.076035 -0.035766 -0.068866 -0.051952 -0.054439 0.018152 -0.015378 -0.040002 0.052197 0.098829 -0.061018 0.083402 -0.098263 -0.029041 0.076259 0.037935 -0.004545 -0.049507 -0.019537 -0.084973 -0.035466 0.059731 0.097521 -0.047228 0.005282 -0.043496 0.076269 0.041838 0.059535 0.032044 -0.010395 0.016158 -0.005644 -0.030926 -0.018687 -0.127795 0.052764 0.113468 0.027429 0.025061 -0.054835 -0.122432 0.141219 -0.092366 -0.185724 0.000321 -0.024959 0.039732 -0.069211 -0.028927 -0.037882 0.017744 -0.082905 0.040425 -0.015734 0.018848 0.047077 0.029514 0.009239 -0.065162 -0.089029 0.118213 -0.024447 -0.070755 -0.061110 0.094932 -0.123580 -0.088921 0.102830 0.010018 0.098219 -0.042859 -0.090148 -0.032779 0.056212 -0.018304 0.000116 0.043275 0.050406 -0.093306 0.037248 0.008446 0.067204 -0.022717 -0.078649 0.005777 0.037520 0.047114 -0.096134 -0.074768 -0.032090 0.022921 0.080401 0.079976 -0.050114 0.118213 0.009309 -0.053312 0.106501 0.075545 0.167220 0.029602 -0.135814 -0.125715 0.038692 -0.133077 -0.149702 -0.110641 0.120758 -0.087238 0.034605 0.003301 -0.067372 -0.066995 0.010979 0.021480 -0.009842 -0.061040 0.003785 0.119160 -0.006213 0.098719 0.050901 0.070829 0.100619 0.041290 0.102582 -0.065020 -0.035222 0.004960 0.002411 0.002536 0.067749 0.042497 -0.017428 -0.039766 -0.009985 0.089459 0.018839 0.155063 0.014317 -0.012012 -0.052658 -0.008858 -0.022412 0.020437 0.045262 0.004172 -0.043058 0.046950 0.014602 -0.046432 0.034000 -0.021023 -0.041888 -0.079745 -0.098144 0.055571 -0.008445 0.075668 -0.103463 -0.021190 -0.088857 0.034372 0.041607 -0.010285 0.021379 -0.001250 -0.057710 0.164424 -0.019658 -0.129608 0.092070 0.079431 -0.063847 0.031409 -0.125984 0.067570 -0.169855 0.034559 0.000280 -0.018407 -0.140156 0.086904 -0.110530 0.015025 -0.141752 -0.123357 -0.006106 0.030888 0.112631 -0.053131 -0.007756 -0.259343 -0.019172 0.007048 -0.072205 0.126483 0.009968 0.073653 -0.113519 0.002756 0.174627 -0.092033 0.110454 -0.134233 0.108243 0.117438 -0.014225 -0.135145 0.058712 -0.006648 -0.008569 0.049383 0.065147 0.057565 0.049399 0.034952 -0.075234 -0.002915 -0.023056 0.022171 -0.007821 -0.068251 0.005827 -0.095529 -0.102387 -0.076689 0.008305 -0.094167 0.149879 0.022549 0.012168 -0.021700 0.001319 -0.133210 0.058831 0.026460 -0.042744 0.084396 0.085498 0.127030 -0.089666 0.114387 0.187351 0.097762 -0.102127 0.071584 0.037871 -0.085077 0.162622 0.009327 0.021249 0.104463 0.101706 0.059215 0.051140 0.163700 -0.130876 -0.009407 -0.016219 0.021722 0.053655 -0.017626 0.019123 -0.071077 -0.076183 -0.106975 0.020714 0.093211 0.024393 0.242221 0.164700 0.142675 0.015323 -0.038446 0.054070 -0.075018 0.123781 -0.090629 -0.098147 0.021095 0.013318 -0.063720 -0.081707 0.039226 0.074773 -0.069581 0.158659 -0.105956 0.060791 -0.082918 0.032793 -0.038637 -0.036934 0.088454 -0.003069 -0.088138 -0.040453 0.092826 -0.057990 0.089114 -0.074369 -0.006903 0.067280 -0.155829 0.095554 0.077094 0.099071 -0.134818 -0.003685 0.016808 -0.055521 -0.047040 0.049346 -0.034054 -0.001317
sent_4 0.013125 -0.015041 0.116671 0.101945 0.151450 -0.027825 0.016894 0.034796 -0.098488 0.028752 -0.073267 -0.000841 -0.103953 -0.028302 -0.046239 0.103633 -0.351896 -0.186748 0.020784 -0.197425 -0.058598 0.022557 -0.176444 0.043849 0.092386 0.003085 -0.044221 -0.158047 0.029764 0.124329 0.145185 0.054385 -0.041785 0.115113 0.006395 0.079542 -0.016713 0.026189 -0.006728 0.070205 -0.122896 -0.031741 0.088500 -0.013529 -0.018063 -0.012619 -0.047419 -0.011016 -0.209680 -0.110564 -0.096530 -0.093225 -0.076408 -0.079882 -0.058082 0.012596 0.014757 0.132795 0.061920 -0.036137 -0.057114 -0.079169 -0.143843 -0.034980 0.088123 -0.059981 0.136146 -0.080797 0.038540 0.000721 -0.116470 0.057550 0.072869 0.076584 0.100431 -0.009659 -0.117384 0.005883 -0.060712 -0.102824 0.194487 0.021835 -0.077278 -0.049917 -0.091694 -0.031020 -0.071246 -0.062793 -0.096915 -0.076295 0.052335 -0.063204 0.054720 0.098557 0.086099 0.030085 0.010402 -0.085806 -0.161310 -0.082339 -0.073854 0.002598 0.074550 0.052781 -0.018297 0.048123 0.009901 0.025502 -0.100375 0.026198 0.081999 -0.014615 0.166440 0.100796 0.083467 -0.019578 -0.071572 0.054881 0.039694 0.043491 0.111613 -0.044956 0.111553 0.022407 0.043045 0.060007 -0.020868 -0.052452 0.127065 0.160369 -0.090207 -0.129852 -0.097365 -0.030149 -0.007960 -0.090565 -0.088621 0.001772 0.137544 0.085487 -0.081637 0.009701 0.010918 0.112489 0.138251 -0.046858 0.023226 -0.032612 0.065330 0.096900 -0.032939 -0.037507 -0.005754 -0.083676 0.085214 0.041437 0.076979 -0.073430 0.012277 0.053350 0.023142 -0.090771 0.114192 0.081496 -0.094711 -0.095761 0.076678 0.033927 0.078114 -0.057920 0.147229 -0.132741 -0.075818 -0.002656 0.081371 0.002393 -0.197438 0.037504 -0.054790 -0.147650 0.038159 -0.058187 0.030243 -0.127287 -0.128979 -0.078189 -0.059386 -0.192086 0.002443 -0.048983 -0.016522 -0.180918 0.029727 0.003657 -0.147545 0.068416 0.045093 -0.237024 -0.117943 -0.050799 -0.014900 -0.292616 0.043684 0.139397 -0.095093 0.191522 0.062551 0.146906 -0.108795 -0.092413 -0.059072 -0.151100 -0.082404 0.002582 0.051077 0.092822 -0.054703 0.171373 0.077399 0.169851 -0.066435 0.134149 0.080023 0.087803 -0.116436 0.155799 0.095304 0.107156 0.031211 0.038876 -0.087887 0.082577 -0.024127 0.073081 -0.070413 0.055261 0.081519 0.054146 -0.078238 0.090790 -0.104928 0.031466 0.177760 -0.061746 -0.123795 -0.034290 -0.007642 0.071209 -0.017990 0.129553 -0.001588 0.050452 -0.059970 0.038634 -0.185368 -0.054082 0.024872 -0.020598 -0.176143 -0.057232 0.120773 -0.055807 0.058037 -0.077009 0.048170 0.035674 -0.109062 0.024292 0.243595 0.115376 0.004693 0.197162 0.071316 0.030515 -0.171852 -0.108015 0.121061 -0.251832 0.115030 0.008771 0.128271 -0.020866 -0.047788 -0.038244 -0.011758 0.057805 0.001253 0.128842 0.010988 -0.104064 0.026687 -0.097378 -0.078095 0.030664 -0.053707 -0.037967 -0.007438 0.069730 0.014294 -0.014058 -0.201323 -0.107042 -0.061374 -0.127426 0.136519 0.020152 0.078097 0.070219 0.021317 -0.051712 -0.028925 0.058920 0.016922 0.020138 0.073299 -0.009782 -0.074469 -0.032700 0.105555 -0.145776 -0.107433 0.006807 -0.024464 -0.035761 -0.050075 -0.061833 -0.137687 -0.078026 -0.148994 0.025789 0.112400 -0.001898 -0.097992 0.039995 -0.032699 -0.006934 -0.021605 -0.100200 -0.120395 0.060709 0.074845 0.073236 0.059905 0.080587 0.002975 0.032147 -0.065924 0.026037 -0.064601 0.062385 0.170446 0.012480 0.008005 0.025645 0.046101 0.159816 -0.141636 0.054119 -0.039259 0.019452 0.032840 0.031348 -0.061295 0.101696 0.060817 0.047558 0.070745 0.126311 -0.042419 0.086971 0.023847 0.062475 0.079548 0.076192 -0.128759 0.089559 0.014214 -0.080644 0.029537 -0.060632 0.011118 0.106495 0.180033 -0.079078 0.026072 0.075968 0.148007 -0.156107 0.003842 -0.036060 0.040081 0.129604 -0.006178 0.088225 0.105961 0.118489 0.026861 -0.012086 0.036757 -0.069055 0.047797 -0.053558 0.106503 -0.105798 -0.005045 -0.013983 -0.088172 0.099019 -0.138298 -0.110078 -0.001868 -0.158422 -0.008382 -0.192282 -0.059783 0.016276 -0.062726 -0.055439 0.066328 -0.046086 -0.082772 0.012436 0.025565 -0.075981 -0.199146 0.049697 0.052816 0.029714 0.051190 -0.071253 0.137245 0.028483 -0.089874 -0.062822 0.096527 0.046293 0.026237 0.071260 0.124005 -0.069377 -0.128472 0.134708 0.021723 0.074167 0.010551 0.060400 -0.095737 -0.127503 -0.066379 -0.011471 -0.042250 -0.079201 0.008236 -0.105128 -0.123352 0.031769 0.097995 0.140743 -0.154998 0.079104 0.078059 0.012639 0.121233 0.062028 0.172200 -0.111231 0.043663 -0.088839 0.144816 -0.140154 0.002085 -0.032514 -0.043941 0.117766 0.001977 0.055726 0.037983 -0.060940 0.042485 -0.040642 0.086964 -0.097176 0.091869 -0.064105 -0.020277 0.071468 0.086405 -0.040497 -0.070434 0.032159 0.110757 -0.048863 0.063362 -0.038715 0.030388 -0.016236 0.146807 -0.085134 0.070236 0.074210 -0.064094 -0.002700 0.019071 0.191257 0.024667 0.118293 -0.089375 0.100229 -0.195410 0.040330 0.051919 -0.085208 -0.106944 -0.042068 -0.042186 -0.188212 0.002111 -0.074956 -0.018944 -0.108427 -0.018403 0.095231 -0.020809 0.029072 -0.023968 0.099469 0.030892 -0.003713 0.045532 0.011060 -0.083154 0.074737 0.173529 -0.008026 0.065211 -0.095757 0.083148 0.014789 -0.026386 0.018037 0.139270 0.094504 0.006777 -0.069640 0.141745 0.070001 -0.019667 -0.055817 -0.095382 0.087026 -0.016633 -0.092028 -0.041650 0.161012 -0.035908 -0.086253 0.060930 0.044115 0.002833 0.041949 -0.047208 0.118068 0.020765 0.105475 -0.042499 -0.181358 0.014330 -0.119947 0.092540 -0.112338 0.109271 0.004002 -0.146803 0.118213 0.064014 0.006610 0.083981 -0.228183 0.137444 -0.129439 0.082915 0.063521 -0.050914 -0.114485 -0.048909 0.079822 -0.009367 0.033839 -0.156886 0.050377 0.082672 -0.027278 0.114752 0.019234 -0.002699 -0.096170 0.037245 0.039629 0.116217 0.101737 -0.083217 -0.027076 0.099745 0.132208 0.135097 -0.098717 -0.073315 -0.004382 -0.003154 0.016706 -0.050395 -0.160125 -0.029515 0.062598 0.039437 -0.084309 0.013955 -0.092684 -0.005069 0.022299 -0.139328 0.090705 -0.291302 0.090434 -0.066807 -0.046541 -0.045616 0.058324 0.081970 -0.011951 0.012882 0.109551 -0.137378 0.091681 0.080245 0.049475 -0.027810 -0.150929 0.015962 0.080689 0.020638 0.072411 -0.196633 0.053878 0.219555 -0.038137 -0.003177 0.035228 0.047625 0.013815 -0.134208 0.136366 -0.176031 0.061193 -0.153174 -0.028813 0.065767 -0.006806 0.021638 0.113115 -0.136363 0.050683 -0.001456 0.078816 -0.024955 -0.028614 0.198113 -0.192923 -0.046978 -0.054940 0.046161 0.083601 -0.041648 0.081251 0.076940 -0.220731 -0.165780 0.019601 0.060403 -0.100120 -0.064449 -0.002033 0.121791 -0.007821 -0.008115 -0.076317 -0.104726 0.115783 -0.015476 -0.106633 -0.021065 0.123298 0.046218 0.167832 0.060347 -0.013198 0.188035 -0.054634 0.058444 -0.126645 0.050644 0.051274 -0.163266 0.012662 0.122591 0.021736 0.113813 0.047168 -0.046766 -0.021994 0.036847 0.128987 0.053701 -0.140290 0.084386 -0.117194 -0.060364 -0.094269 -0.080782 0.065664 -0.138602 0.079634 -0.167132 -0.008533 -0.118315 0.081151 0.114242 0.075922 0.159156 0.059887 -0.033717 -0.042445 0.075240 0.062951 -0.114334 -0.087418 -0.071133 -0.035001 -0.010973 -0.035248 0.058788 0.099493 0.048781 0.106270 0.028387 -0.098130 0.070561 -0.018983 -0.126463 0.014241 0.084408 0.061836 0.084108 -0.065830 0.159773 -0.047794 0.026017 0.056953 0.072945 -0.220585 -0.038925 0.078546 0.018369 -0.102861 -0.063628 -0.043238 -0.048675 -0.043201 0.037396 -0.015027 -0.014875 0.077308 -0.057654 0.128852 -0.066891 0.038748 0.064137 -0.006393 0.045057 0.096960 -0.082652 -0.108505 0.072846 -0.108016 -0.137941 0.041899 -0.018690 -0.005519 0.044748 -0.027711 0.143884 0.074625 0.015944 -0.186359 0.042115 -0.015390 0.101281 0.136447 0.056053 -0.040780
sent_5 -0.116096 0.170059 -0.166770 -0.086736 -0.031291 -0.169485 0.021846 -0.158888 -0.002660 0.095354 -0.010352 0.183482 0.145309 0.039943 0.041021 0.026340 -0.005879 0.003043 0.227231 -0.009934 0.016324 0.024390 0.025911 0.014797 -0.122692 0.141387 -0.032280 -0.084136 0.075462 -0.004766 -0.044321 -0.121934 -0.013386 -0.153902 -0.006618 -0.161544 -0.277520 0.014432 0.007922 -0.002808 0.078730 0.048863 -0.046813 -0.003926 -0.058779 -0.040458 -0.026972 0.178205 0.133598 -0.043177 -0.063290 0.110685 0.011264 -0.130574 -0.017156 0.020795 -0.079903 0.097421 -0.119780 0.019522 -0.164388 -0.040348 -0.105473 -0.145131 0.145378 0.002891 -0.223630 0.091705 0.021045 0.223590 -0.028166 0.185153 -0.013584 -0.126194 0.052151 -0.113929 -0.008414 -0.083807 0.189759 0.285645 0.065691 0.057987 -0.007666 0.055950 -0.028479 -0.132880 0.052307 0.124781 -0.011347 0.154847 0.006370 0.128104 0.029183 0.106773 -0.045173 -0.048226 0.017033 0.201719 0.096335 0.112249 -0.087202 -0.176054 -0.111687 -0.036662 -0.039844 0.122183 -0.097307 0.070589 0.175256 -0.057575 -0.065325 -0.052588 0.039109 -0.052448 0.069300 -0.056869 0.245797 0.049760 -0.194940 0.056080 -0.064088 0.083770 0.162733 -0.060836 0.067627 -0.011833 0.047017 -0.069025 -0.107905 -0.072979 -0.105161 0.167142 -0.183890 -0.000495 0.011950 -0.094492 -0.043509 0.076880 0.018371 -0.114760 -0.106564 0.047072 -0.103518 0.054984 -0.093544 0.082978 -0.019242 0.114498 -0.098822 0.070440 -0.129898 -0.023794 0.037889 0.113886 0.105775 0.049190 -0.175314 -0.152271 -0.044358 0.012354 0.130042 -0.035213 -0.025743 0.200912 0.124137 -0.040646 0.076584 -0.180034 -0.085034 -0.154054 -0.111240 -0.034031 0.130173 0.165656 0.014816 -0.121597 -0.185860 -0.035670 -0.022042 0.034474 0.042845 0.128944 0.184329 0.045589 0.005171 -0.178636 0.036929 -0.031623 0.105824 0.086053 0.111118 0.010299 -0.123692 0.015894 0.081127 -0.003672 -0.023411 0.050765 -0.165251 -0.056442 -0.123565 0.104226 -0.161835 -0.130636 0.004226 -0.052302 0.002475 -0.032381 -0.103795 0.139070 0.122722 -0.014749 -0.019614 -0.118054 0.128978 -0.126559 0.222316 0.196695 -0.006100 -0.020303 -0.077647 -0.006668 0.050485 -0.124182 0.070628 0.031872 0.057264 0.098546 -0.078104 0.143781 -0.099211 0.095815 0.071784 -0.054153 -0.073215 -0.138980 -0.007331 -0.087876 -0.084785 -0.144926 0.047103 -0.111169 0.036097 0.029274 -0.075647 0.178636 -0.211273 -0.126398 -0.141149 -0.018733 0.043073 -0.176493 -0.031224 0.189399 0.046532 -0.006412 -0.091323 -0.032314 -0.065696 0.111131 -0.020169 0.038642 -0.110107 0.083153 -0.074026 0.171297 -0.049581 0.036867 -0.068683 -0.166575 -0.122238 0.130723 -0.021942 -0.058080 -0.032349 -0.024936 0.038189 -0.246288 -0.011333 -0.083947 0.040432 -0.061504 0.005916 -0.054795 0.058423 0.060908 0.274563 0.077194 -0.108615 -0.080261 0.113907 -0.068905 0.050693 -0.147339 -0.067825 0.062833 -0.002286 -0.099084 0.076217 0.013063 -0.054004 0.027395 0.035854 0.103180 -0.256282 0.150262 -0.162391 -0.096994 0.093509 0.097825 0.039344 0.077272 0.123061 -0.030328 0.084227 0.071887 0.117776 0.000135 0.020252 0.005080 -0.029908 0.001793 -0.072454 0.129703 0.140718 -0.080169 -0.040591 -0.042835 -0.132778 -0.027006 -0.086478 0.023824 0.206730 0.097920 0.014476 -0.091447 -0.023276 -0.067936 -0.001385 0.071750 0.071024 -0.058412 -0.036683 -0.034569 0.002007 0.042905 -0.032502 0.186598 0.011878 -0.092799 0.182878 -0.003442 0.021305 0.050007 -0.050972 0.028057 0.097754 0.125999 0.086327 0.138349 0.051651 -0.151593 0.016536 0.031990 0.089029 0.114047 0.018479 0.115096 -0.056288 -0.120264 -0.008901 0.232617 -0.026011 0.082529 0.055565 0.061528 -0.214306 -0.312906 0.023177 -0.068001 0.210928 0.069264 0.018023 -0.041049 -0.014761 0.079209 0.149697 0.052450 -0.037025 0.156912 0.031204 -0.081069 -0.088154 0.074527 -0.091073 -0.051628 0.080950 0.056221 0.050286 0.006430 -0.070975 -0.032256 0.086809 0.040765 -0.118274 0.077954 -0.029532 0.038390 -0.097707 -0.107865 -0.002714 0.027752 -0.062977 -0.013053 0.114340 -0.134595 0.233077 -0.145762 0.164348 -0.030400 0.155449 -0.207429 0.096969 0.115120 0.051908 0.075706 0.066534 0.061060 0.150678 -0.000079 -0.000450 -0.066290 0.026395 -0.090286 -0.022981 0.155653 -0.021839 -0.051394 0.063694 -0.067668 0.265619 0.162389 -0.013271 0.088612 -0.002233 0.070311 -0.168933 -0.056490 -0.147347 0.045819 0.000457 -0.003481 -0.227042 -0.086602 -0.062541 0.004783 0.060999 0.064745 0.063581 0.078566 -0.000936 -0.059206 -0.020173 -0.042735 0.016610 0.025156 -0.109569 -0.032008 -0.164370 -0.016318 -0.134589 0.119333 -0.060412 0.201203 -0.057608 -0.053371 -0.092641 0.019931 0.163389 0.092111 0.005762 -0.103751 0.070124 -0.055483 0.150479 -0.052733 0.288333 0.074110 0.034349 0.152963 -0.018822 -0.030798 0.014796 0.064812 0.164725 0.032512 0.124981 -0.059709 0.134203 -0.031285 -0.062477 0.004787 -0.066474 0.015882 -0.064158 0.194411 -0.099715 0.023104 0.243584 0.085526 -0.107622 0.166938 0.004044 0.171485 -0.069788 0.175347 0.047902 -0.055374 -0.198600 0.174178 0.036866 0.021422 0.069059 -0.139964 0.090148 -0.108280 -0.213674 -0.087814 0.101812 -0.143441 -0.124013 0.021318 -0.157232 0.089953 0.119356 0.010569 0.121584 0.038217 0.115634 -0.103586 0.241174 0.014247 -0.184104 -0.202603 -0.057885 -0.138015 0.241259 -0.137584 0.100122 -0.013677 0.050893 -0.032383 -0.138672 0.064875 -0.119888 -0.061279 -0.133768 0.047736 -0.134462 0.006753 0.174896 0.150013 -0.055984 0.048986 -0.067427 -0.043110 -0.289024 0.011688 0.060679 0.087909 -0.111453 0.037581 0.040649 -0.021565 -0.152008 -0.131313 0.119724 0.029365 -0.054848 -0.067819 -0.199014 -0.018982 0.014887 0.224637 -0.161326 -0.092207 0.177667 0.079319 0.146943 0.198064 0.014187 -0.119845 -0.114891 0.066224 0.121664 -0.105632 0.134060 0.070336 -0.075173 -0.126559 -0.003416 -0.046559 0.113653 0.114814 0.124853 -0.068198 0.055965 -0.186905 -0.201227 0.044754 -0.209843 -0.011155 -0.006310 0.045029 0.053476 0.236141 -0.126401 0.098174 0.077184 -0.112559 -0.001981 0.046862 0.048033 -0.182379 -0.075297 0.022794 -0.199998 -0.180347 -0.005250 0.060983 -0.030733 0.148171 -0.115729 0.182731 -0.055006 0.038823 0.040824 -0.032966 0.282489 0.171003 0.105296 0.084695 0.054846 -0.183801 -0.203504 0.100135 0.186334 -0.096065 -0.081183 0.123034 0.082117 -0.033475 0.066426 0.052115 0.007014 -0.017536 0.147145 -0.027368 -0.008706 0.090984 0.046292 -0.102357 -0.027451 -0.157802 -0.069447 0.121454 0.203783 0.043181 0.129384 -0.057575 -0.134701 -0.024199 -0.049650 -0.099169 0.008059 0.338658 -0.061163 -0.113985 0.229189 -0.003054 0.083560 -0.029489 0.125798 0.000578 -0.054628 0.115114 -0.029190 0.086998 0.174179 -0.048224 0.023618 -0.121357 -0.194461 -0.040136 -0.033610 0.074485 0.138097 0.242454 0.197616 0.201504 -0.212120 -0.055813 -0.176795 -0.016889 0.035239 0.259462 0.038582 -0.136632 0.203298 -0.044964 0.010104 0.000552 0.192897 0.058134 -0.034584 -0.057502 -0.050667 -0.124557 -0.105618 -0.146891 -0.097748 0.150668 -0.080768 0.080979 0.156569 -0.046830 0.085473 0.145461 0.019199 0.105244 -0.032716 0.031433 -0.048258 0.137327 -0.077791 -0.048715 0.032567 0.104085 -0.182449 0.053091 -0.050877 -0.113175 0.168457 -0.035434 0.056019 0.023580 0.068562 0.200250 0.086405 -0.104631 -0.077524 0.176677 -0.184937 -0.004431 0.210136 -0.095299 -0.026205 -0.077576 -0.128733 -0.028673 -0.178298 0.016695 -0.054150 0.188069 0.186354 -0.012218 -0.005494 -0.130922 -0.122586 -0.131355 -0.082175 0.057292 0.196338 -0.047247 0.030048 -0.015506 0.096417 0.001931 -0.040939 0.038283 0.114753 -0.154001 -0.049893 -0.041278 0.085816 0.091768 -0.148634 -0.005632 -0.222968 0.051525 -0.092570 -0.015342 0.059897 0.162382 0.064298 0.184545 0.066772 -0.113532 0.058263 0.070160
sent_6 0.058107 0.024390 -0.029111 -0.062583 0.069281 0.032651 0.057798 0.013743 -0.036459 -0.121282 -0.022414 0.003772 -0.035006 0.046533 -0.018967 0.040764 -0.046500 -0.006212 0.056952 -0.015067 -0.049156 0.005588 -0.012807 0.130345 0.044949 0.106473 -0.018074 0.044090 0.023524 0.035052 0.029901 -0.055823 -0.036389 -0.103750 -0.054766 -0.140333 0.036576 0.029544 0.107117 0.038546 -0.008032 0.062798 0.030600 -0.008358 -0.081324 0.060471 0.048654 -0.005760 -0.030871 0.004876 -0.008663 0.017846 0.019234 -0.118966 -0.075387 0.097139 -0.178931 0.075973 -0.002248 -0.066995 0.028691 0.079066 0.023374 0.006824 0.024755 0.028137 -0.085499 -0.101472 0.102822 -0.038505 -0.067020 -0.061514 0.054190 -0.030266 -0.012811 -0.078254 0.035520 0.056351 0.017545 0.007107 0.061517 0.073878 -0.019169 0.089096 -0.025197 0.009845 -0.005949 0.010278 -0.007821 0.101831 0.016885 -0.002418 0.012900 -0.026483 0.067145 -0.019187 -0.056192 -0.001199 -0.004786 0.023264 -0.063483 0.041791 0.030476 -0.020064 -0.040514 -0.018385 -0.065935 0.002064 0.052069 -0.001451 -0.009347 -0.017570 0.084131 -0.027644 0.008882 -0.066343 -0.048135 -0.020445 -0.008420 0.042496 0.014909 -0.084656 0.059375 -0.034355 0.057242 -0.025405 0.056173 -0.027366 -0.070496 0.001668 -0.009244 0.020296 -0.012198 -0.009933 -0.012081 -0.074228 0.055245 0.022441 0.054944 0.052941 -0.035013 0.068732 -0.045290 0.076123 -0.082622 0.037968 0.030355 0.021400 0.045872 0.056430 -0.124724 0.042771 0.061095 -0.063151 -0.094679 0.013794 -0.052279 -0.052646 -0.097874 -0.009518 -0.053161 0.017454 0.075386 0.131341 0.002866 0.008311 -0.108922 -0.059124 -0.018034 -0.024083 -0.092869 -0.001713 -0.039494 0.023296 0.003121 0.027857 -0.058259 0.077077 0.003975 -0.018731 -0.008126 -0.061737 0.016872 -0.055190 -0.011447 0.033661 0.052793 -0.062162 0.115112 0.122874 -0.031129 -0.017925 -0.051357 0.005180 0.008771 -0.046914 -0.111736 -0.002591 0.118642 0.034194 0.041453 -0.095812 -0.079181 -0.061983 -0.019881 0.051333 0.038299 0.012620 -0.044354 0.025654 0.121314 0.051382 -0.038336 -0.004042 -0.079223 0.028253 -0.039205 -0.007961 -0.041870 -0.028305 -0.158400 0.017653 0.009759 0.005302 -0.062151 -0.005894 0.015635 -0.007478 -0.039207 -0.080997 -0.053597 0.005659 0.051128 -0.010751 0.033973 -0.018878 0.089007 0.007523 -0.080979 0.001216 -0.069903 0.024773 0.072882 0.049126 -0.052839 0.024516 -0.021858 0.072449 -0.070366 -0.099609 -0.044570 -0.065606 -0.026186 0.048034 -0.025780 -0.024185 -0.064509 0.038004 -0.071784 0.014876 -0.007104 0.040240 0.046207 0.069218 -0.009448 0.019196 -0.122877 0.094684 0.058019 0.020867 -0.054711 0.003830 0.052751 0.009886 -0.136479 -0.058869 -0.024536 -0.063605 -0.047551 0.006462 0.026140 -0.001267 -0.057589 -0.082517 0.014507 0.091362 0.001033 0.018819 0.048842 -0.070410 -0.029945 0.007869 -0.030542 0.032464 0.042560 0.061013 -0.022834 0.063353 -0.004007 -0.005471 -0.044267 0.053732 -0.005552 0.044128 -0.062245 0.082035 0.116992 0.021659 -0.059051 0.105755 -0.017404 -0.022870 -0.008978 -0.000398 -0.048551 -0.024721 0.026710 0.061229 -0.114298 -0.008646 0.043916 -0.059641 -0.021387 0.037526 -0.032891 -0.069968 -0.073189 -0.034798 -0.039412 -0.022353 -0.005046 -0.073932 -0.005156 0.048357 0.090419 -0.037088 0.014295 -0.117874 0.013205 0.095220 0.046401 -0.080424 -0.010795 0.031884 0.061467 0.038673 0.012719 0.057102 0.057191 0.044581 0.021532 0.053759 -0.005393 0.069367 0.105663 -0.072284 0.018135 0.043915 0.030258 0.079586 -0.046971 -0.007830 -0.005107 0.057666 0.087446 0.111161 0.042164 -0.000751 0.019445 0.044705 -0.047654 -0.006675 -0.049793 0.012101 -0.007572 -0.042262 -0.108427 -0.097085 -0.019643 0.004612 -0.028667 0.100962 0.031574 -0.037260 0.015398 -0.056949 0.051427 0.090774 0.003730 0.000825 -0.019168 -0.112387 0.038868 -0.011386 -0.038203 0.021653 0.027765 -0.090911 -0.063421 0.005076 0.013990 -0.015039 -0.062430 -0.009539 -0.088248 0.015132 0.085571 0.000003 -0.009142 -0.038363 -0.069990 -0.021173 -0.033824 -0.029553 -0.030193 0.003176 -0.023075 -0.057174 0.007884 -0.098853 0.028858 -0.034255 -0.015476 0.043858 -0.031121 -0.014461 -0.000218 -0.004709 0.018805 -0.034763 0.004916 -0.014836 0.029910 -0.064999 -0.006146 0.018543 -0.085345 0.004459 0.024700 0.077833 0.002159 -0.086944 0.001741 0.036643 -0.010523 0.006001 0.063132 0.051220 0.006006 -0.080574 -0.081740 -0.005509 -0.058051 -0.005486 -0.040998 -0.111793 0.004931 -0.004427 0.063877 -0.006077 -0.027651 0.012547 -0.018578 0.030701 0.040900 -0.058713 -0.055536 0.040434 -0.052041 0.028103 -0.125095 -0.000933 -0.076170 0.089302 -0.032362 0.102498 -0.101361 -0.021897 -0.021554 0.038952 0.057359 -0.053902 -0.088379 -0.084141 -0.024859 0.003670 0.087157 0.059252 0.095615 -0.008666 -0.079925 0.025528 -0.014899 -0.045971 -0.072292 -0.071379 -0.033706 0.023099 -0.092870 -0.018037 0.041642 -0.027387 -0.106418 0.035006 -0.027436 -0.001852 -0.016523 0.046308 0.073516 0.063148 0.006976 0.000488 0.059190 0.019617 0.004325 -0.080005 -0.013799 -0.013354 -0.109121 -0.033215 -0.134151 -0.011025 0.040651 -0.065559 0.052652 0.034693 0.056792 -0.010119 0.046165 0.003180 -0.040936 0.073813 -0.008277 0.072817 -0.014446 -0.004425 0.018084 0.046998 -0.003862 -0.053222 0.085304 -0.023829 -0.008161 -0.115328 0.014512 0.026662 0.085589 -0.078854 0.016240 -0.025656 0.023786 -0.084591 0.047358 -0.014330 -0.047596 0.011315 -0.007979 0.025931 -0.015766 0.022173 -0.105839 -0.026153 -0.076806 -0.005367 0.023715 0.049043 -0.001426 0.100381 0.083106 0.074950 0.024562 0.006438 0.015895 -0.073417 -0.019378 0.034440 0.020142 0.111038 0.083486 -0.015342 -0.013266 -0.003904 -0.037545 0.030329 -0.007485 0.037502 0.045953 0.070700 -0.014637 -0.042197 0.017194 -0.020534 -0.072107 0.078148 0.030490 -0.012679 -0.059392 -0.017501 -0.027052 0.010093 0.067837 -0.045315 -0.024720 -0.053681 0.119174 0.036052 0.062964 -0.092969 -0.010268 -0.027501 -0.117799 0.049165 0.041843 0.010969 0.041399 0.084980 0.021776 -0.065235 -0.091146 -0.060815 -0.057257 -0.043323 -0.009329 0.042964 -0.106349 -0.113675 0.044189 0.053351 -0.026513 0.011407 -0.023047 0.053262 -0.054709 -0.017304 -0.001276 0.003497 0.009354 -0.027173 0.080293 0.057961 0.045150 0.022545 0.091250 -0.060518 -0.011453 -0.034924 0.005987 -0.089277 -0.033656 -0.031747 -0.043299 -0.022266 0.068641 -0.069258 -0.020704 -0.095694 0.049160 0.033016 0.018922 0.068914 0.164930 -0.011367 -0.024682 0.031861 -0.069913 0.034685 0.021718 0.023602 0.155785 -0.014185 -0.068110 0.050221 -0.025610 0.050749 -0.016552 0.031097 0.002199 0.036892 0.048934 -0.135504 0.005845 0.044595 -0.011745 0.043120 -0.055037 0.015455 0.014045 0.013304 0.006993 0.115841 0.038899 0.096551 0.096322 0.001046 0.011897 0.067250 0.006686 -0.005573 0.071155 0.121874 -0.090943 0.041166 0.009091 -0.001063 0.013382 0.045526 -0.054807 -0.004095 0.070816 -0.065603 -0.072089 0.035267 0.067752 -0.027059 -0.031110 -0.019478 0.021323 0.015582 0.032459 0.035297 -0.045795 0.110422 -0.058951 -0.025223 0.015465 -0.013133 0.003460 0.032049 0.072102 0.076668 -0.004939 0.049649 -0.088149 0.080517 0.002994 0.032439 -0.014992 0.013486 0.009332 -0.151810 0.082105 -0.129825 0.070795 0.026546 0.061864 0.057069 0.141547 -0.092421 -0.103443 0.002951 -0.059829 -0.001971 -0.028065 -0.069759 0.062803 0.020136 -0.025592 -0.031872 0.068517 0.085084 0.026729 0.051262 0.023108 -0.057997 0.095264 0.002204 0.019708 0.016737 -0.004290 0.009891 0.019518 0.033514 -0.043806 -0.035978 -0.048688 0.090643 -0.089574 0.058705 0.014118 0.065234 0.023985 -0.039149 -0.020068 0.057860 -0.084866 0.060439 -0.100750 -0.043775 0.040082 -0.011790 -0.011996 0.077937 -0.009841 -0.031960 0.020815 -0.045657 -0.084450 0.005670 0.093594 0.014322
sent_7 -0.216118 0.216340 -0.105943 -0.048786 -0.004753 0.049402 0.017978 -0.312749 -0.109136 -0.006005 0.027944 0.041417 -0.063417 0.056406 0.024518 -0.064110 -0.114141 0.025178 -0.004240 0.086961 -0.098148 -0.027858 -0.155495 0.143839 0.191478 0.143241 -0.056133 0.040934 0.109711 0.067809 0.093552 0.079326 -0.090171 -0.198757 0.061794 0.111757 -0.118135 -0.050946 -0.017193 -0.056558 -0.055313 -0.025438 0.042715 0.146814 0.027358 0.058134 -0.101510 0.044010 0.144016 -0.024045 -0.029157 -0.001038 -0.001875 0.070423 0.010726 -0.042959 0.191495 0.013540 -0.048455 0.101908 -0.251317 0.000305 -0.004347 -0.200341 0.012535 0.180762 0.152102 0.135096 -0.022883 0.020708 -0.135064 -0.038576 0.140562 -0.162249 -0.043769 -0.179484 -0.044686 0.004088 -0.343596 0.090844 0.169071 0.128798 0.204693 -0.100106 0.001110 -0.156823 -0.082470 -0.005096 0.019952 0.002457 -0.135432 0.007212 -0.022774 0.026434 0.003682 -0.020261 0.075113 0.195076 -0.049489 0.030303 -0.088473 -0.041800 -0.015826 -0.132639 -0.258022 0.062041 -0.087282 -0.143886 0.031973 -0.158306 0.120237 -0.063731 -0.145201 -0.008071 -0.153844 -0.121231 -0.016488 0.007672 -0.052995 0.000173 -0.062053 -0.044758 0.264001 -0.148235 0.003667 0.109435 0.046976 -0.090344 -0.063388 -0.081195 0.144575 -0.020955 -0.073187 -0.079606 0.037622 0.268999 -0.095594 -0.008230 -0.149301 -0.015016 -0.096554 0.154341 -0.022358 0.039110 -0.171940 0.098257 -0.060915 0.134608 -0.080757 -0.111907 0.120098 0.050420 -0.015164 0.263544 0.077330 -0.071579 -0.180187 0.067148 0.044104 -0.158398 0.005896 0.006367 -0.236276 0.113675 0.041969 -0.024120 0.149408 -0.390624 -0.034126 -0.078576 -0.201318 -0.001299 -0.027375 -0.007668 0.190758 -0.056173 0.175205 0.012155 0.002714 0.134715 0.034235 0.015494 0.216408 0.058665 -0.030607 -0.102343 -0.017207 0.008455 0.319279 -0.021568 0.224686 0.131433 -0.042663 0.151470 0.096098 0.077176 -0.046403 0.209069 0.008144 0.108049 -0.081092 0.039755 -0.209005 -0.139481 -0.014899 0.136773 0.136151 -0.005377 -0.076571 0.235471 0.101999 0.113540 0.152726 -0.004858 0.033231 0.057576 -0.060429 0.162612 -0.020309 -0.036564 -0.007058 -0.123239 0.085060 -0.059253 0.187340 -0.038080 -0.056977 -0.165137 -0.037286 -0.038038 -0.050282 0.149267 0.038221 -0.052623 -0.043411 -0.140243 -0.060949 0.012242 0.036724 -0.126391 0.051694 -0.086862 -0.065806 -0.045077 -0.058977 0.130300 -0.204766 -0.057208 -0.072050 -0.027881 0.052193 0.012857 0.026395 0.083472 0.018478 -0.157459 0.045706 0.117142 0.040882 0.086453 -0.009563 -0.015855 -0.002320 0.131339 -0.072493 0.080508 0.059994 0.115160 -0.119301 0.116414 -0.151215 0.105039 0.052424 0.129117 0.023940 0.210733 -0.034141 0.059296 0.101712 -0.121490 0.037542 0.091311 -0.129349 -0.035365 -0.004682 -0.047389 -0.011257 -0.011840 0.023689 -0.023849 0.029357 0.001290 -0.014592 -0.333339 0.000524 0.141819 0.084069 -0.073289 -0.092883 -0.003459 0.062907 0.139322 0.060667 -0.053025 -0.078438 0.101960 -0.133889 -0.110791 0.085123 0.220454 0.139101 0.158124 -0.056991 -0.181762 -0.047852 -0.283176 0.067802 0.005229 0.036736 0.083145 0.119567 0.002819 0.030371 0.119123 -0.035456 -0.019443 0.072597 0.148705 0.131633 0.096764 -0.077461 0.044351 -0.026832 -0.061613 -0.139973 -0.066667 0.110421 0.108108 -0.075989 0.099816 0.031856 -0.048309 0.008338 0.069237 -0.109571 -0.068425 0.143877 0.154321 0.042536 -0.178361 0.015349 0.107426 0.184275 0.141321 -0.036062 0.026372 0.249314 -0.084950 -0.043720 0.192030 0.140371 -0.115108 0.130738 -0.266229 0.027177 -0.080987 0.106219 -0.072762 -0.042260 -0.068070 -0.230590 0.049957 0.108075 -0.040870 0.034772 0.080966 -0.053098 -0.118452 0.126580 0.088581 0.231543 0.050977 -0.016148 -0.097448 0.120274 0.092930 -0.054036 -0.017739 0.084041 0.105500 -0.064802 0.137769 -0.086876 0.093145 0.051054 -0.075172 -0.010027 -0.137050 0.069613 0.163621 0.010788 0.056364 -0.069103 0.220923 -0.015443 0.003060 -0.094540 0.051589 -0.167577 0.007676 0.022854 0.038151 -0.213132 0.124969 -0.105842 -0.113142 0.281117 -0.007913 0.099381 -0.003272 0.092011 0.066626 0.021941 0.244173 0.185836 -0.015559 0.049718 -0.014081 0.022359 0.098086 0.032068 -0.054812 -0.019828 -0.124879 -0.156705 -0.076905 -0.161580 -0.026846 0.017573 0.135068 0.018140 0.115702 -0.217079 0.134422 0.031540 -0.139884 0.057307 -0.086367 -0.020898 0.091898 0.031838 0.133256 -0.002843 -0.174816 -0.031382 0.003688 0.012734 -0.084145 0.165215 -0.028348 0.194682 0.053758 -0.043759 -0.022095 0.041996 0.148761 -0.138195 0.127543 -0.133960 0.134839 0.072961 0.028356 -0.125278 0.064333 -0.003813 0.093676 -0.122617 0.118011 -0.044972 0.126509 0.004449 -0.044171 -0.071652 -0.015696 0.119800 -0.222670 0.096728 -0.004250 0.037976 -0.059777 0.125655 0.058497 0.004876 -0.116213 0.115477 -0.030341 0.095258 -0.047513 0.230877 -0.084365 0.007670 0.070557 -0.020243 0.107306 -0.231999 0.034228 -0.090194 0.070720 0.287734 0.108639 -0.052635 -0.050255 0.114441 0.030525 0.022546 0.143745 0.093803 0.151918 0.027427 0.072631 0.111877 0.049346 0.070283 -0.055594 -0.010959 -0.141316 -0.251277 0.054125 0.132311 0.119763 -0.236521 0.100306 0.040658 0.048907 0.061266 -0.122065 0.079030 -0.178295 0.057946 0.184956 -0.085040 0.167822 0.009023 -0.007952 -0.084272 -0.146107 0.020138 0.141249 -0.093349 0.037593 0.068562 -0.075155 -0.125533 -0.006756 -0.076520 -0.014438 -0.021360 -0.126796 -0.048900 -0.135540 -0.043639 0.111599 0.028919 -0.076924 -0.087277 -0.147453 0.006197 -0.028562 0.004725 0.090758 -0.072877 0.079262 -0.021455 -0.002577 -0.166835 -0.131135 0.019266 0.001788 -0.162133 0.007526 0.027485 0.001399 -0.137896 0.091291 -0.168938 -0.064961 0.108310 0.121232 0.052471 0.059247 0.035290 -0.328495 -0.095210 0.010063 0.013509 0.117885 -0.005220 0.011445 0.040871 -0.137120 0.038439 0.037329 -0.019310 0.239369 0.014556 0.035124 0.190796 -0.111095 -0.203735 0.009404 -0.070490 0.026808 0.055227 -0.120470 -0.076059 0.084547 -0.073849 -0.087464 0.009642 -0.125675 0.050810 -0.132026 -0.029990 -0.195623 -0.030969 -0.027564 -0.129635 -0.103451 0.027103 -0.002743 0.044870 0.095034 -0.023519 -0.048406 -0.138754 0.064812 -0.056509 0.141811 0.142436 -0.031906 0.005508 0.016928 0.012697 0.099228 -0.088323 0.016430 -0.017447 -0.198787 0.126203 0.041351 -0.050164 0.135353 -0.021377 0.000120 -0.116032 0.114653 -0.071463 -0.076752 -0.053023 0.088196 -0.007497 -0.051260 -0.032582 0.078608 -0.051267 -0.000719 -0.029110 0.151279 0.106835 0.010011 -0.213045 0.060678 0.050022 -0.124848 0.200838 0.342865 0.083802 -0.244284 0.140968 -0.047830 0.188668 0.002492 -0.192757 0.121313 0.092372 0.117882 0.052673 0.005601 -0.002762 -0.060635 -0.114539 -0.099619 -0.138729 -0.067482 -0.218716 -0.167185 -0.076033 -0.112712 0.201009 0.305115 -0.355307 0.050091 -0.180611 -0.153877 0.021054 0.031481 -0.009866 0.064292 0.082177 0.119869 0.084670 0.085048 -0.071178 0.076072 -0.141669 -0.123379 0.021087 -0.105691 0.035041 -0.232738 0.171449 -0.172363 0.143102 -0.170861 0.095909 0.024802 0.169597 -0.029258 -0.282002 -0.106848 -0.011521 0.104857 0.029695 0.013065 -0.111438 0.023697 -0.045588 -0.071144 0.146193 -0.002469 0.175475 -0.035536 0.307615 -0.146755 0.033400 -0.013155 0.009455 0.078101 0.215931 -0.117329 -0.013715 0.172633 0.052578 -0.047621 0.013227 -0.066448 -0.198625 -0.176604 -0.008691 0.119544 0.061593 -0.119959 -0.185903 0.008785 -0.140285 -0.011652 0.064230 -0.210613 -0.125612 -0.018531 0.182523 0.019857 0.337318 -0.027839 0.146836 0.173805 0.130317 0.068028 -0.131376 0.016761 0.025315 0.067874 0.035931 0.208920 0.081897 0.011423 -0.176511 0.045914 0.019406 0.100532 -0.047514 0.061538 0.103518 0.184097 0.107547 -0.080723 -0.214090 -0.115307 0.169560 -0.069497
sent_8 0.018452 0.036784 -0.010683 -0.000262 -0.163932 -0.072170 -0.011590 -0.050860 0.058411 0.095121 -0.059582 0.162949 0.143392 0.168631 -0.009863 0.029017 0.022126 -0.036641 0.076598 0.084719 0.080375 -0.043245 0.081421 -0.053236 -0.011982 0.094422 -0.044735 -0.065480 0.160581 0.104643 -0.165822 -0.014751 -0.016721 -0.134172 0.081307 -0.100449 -0.191876 -0.026612 -0.104197 0.042462 0.050968 0.002673 0.012514 -0.025692 -0.100310 -0.051574 -0.046396 0.047273 -0.043682 -0.112866 0.126896 -0.066584 0.032237 -0.003838 -0.064591 0.011933 -0.187458 0.012341 -0.196431 0.109790 -0.064373 0.075586 -0.039198 -0.079315 0.141827 0.089099 -0.206744 0.146304 0.039657 0.200504 0.003045 0.189302 -0.016622 0.025775 -0.038099 -0.002298 0.081216 -0.141144 0.146991 0.075981 -0.076986 -0.083060 0.025382 0.059527 -0.124891 -0.107468 0.108084 0.101444 0.033392 -0.022482 -0.051783 0.090199 0.011372 0.093048 -0.021096 0.118260 -0.003120 0.078527 0.070334 0.173302 -0.129264 -0.150353 -0.080904 -0.084720 -0.077822 -0.051817 -0.047060 0.010011 -0.083443 -0.069361 -0.037657 0.048540 0.047100 -0.030652 -0.048247 -0.115232 0.238262 -0.007559 -0.054913 -0.011679 -0.089323 0.116036 0.068901 0.069738 0.130688 -0.007068 0.042922 -0.140606 -0.057293 0.078615 0.054840 0.090716 -0.102754 -0.025578 -0.040369 0.059241 -0.041435 0.061710 -0.014032 -0.078261 0.003042 -0.038518 0.049007 0.014650 -0.238409 -0.054786 0.035679 0.077846 -0.166740 0.049784 -0.094744 0.086903 0.084464 0.146130 0.030873 -0.019067 0.004358 -0.223961 -0.036499 -0.019691 0.171840 0.060577 -0.006068 0.091978 0.002861 0.041668 0.155650 -0.073767 -0.057394 -0.025141 0.069529 0.043534 0.092289 0.108896 -0.144130 -0.207470 0.005770 -0.114019 -0.061562 -0.045154 0.063350 0.031029 0.083941 0.012539 -0.097899 -0.117422 -0.092202 0.093731 0.082848 -0.057121 0.041868 -0.055914 -0.108643 -0.068043 0.094385 0.085301 -0.073394 0.013750 -0.078347 -0.000112 -0.145776 0.170835 -0.126569 -0.023975 -0.019984 -0.072812 0.050943 -0.045498 -0.033143 0.039480 0.002178 0.035539 0.076120 -0.102982 0.022663 -0.026838 0.142839 0.212133 -0.006572 -0.088259 -0.021341 -0.062105 0.044179 0.036441 0.024366 0.027830 -0.065855 -0.075874 -0.113697 0.138500 -0.063281 0.079076 0.011398 -0.085391 -0.087282 -0.096715 0.053176 -0.062382 -0.086211 -0.107898 -0.026708 -0.130367 -0.021326 -0.135069 -0.076223 0.139970 0.028420 -0.187208 -0.115040 0.010615 0.006153 -0.103461 0.075556 0.160242 0.216537 0.069229 -0.057258 -0.008827 0.015522 0.147197 -0.079806 -0.069667 -0.110136 0.027776 -0.115311 0.007545 -0.032656 -0.053411 0.006459 -0.182512 -0.066475 0.036587 0.043908 -0.111401 0.139167 0.130247 0.095673 -0.064574 -0.017062 -0.175405 0.038816 -0.001346 0.002939 0.023485 -0.044786 -0.020610 0.200344 0.066752 -0.130480 -0.195380 0.134369 0.064453 0.194469 -0.005605 -0.033766 0.117766 0.033998 -0.150894 0.089281 -0.032631 0.067350 0.108962 -0.008533 0.101868 -0.017533 0.132917 -0.105865 -0.154908 0.046291 0.050841 -0.075116 0.114150 0.134398 -0.017680 -0.002364 0.138973 0.191509 -0.026484 0.082892 -0.012412 0.066794 0.138123 -0.124538 0.049050 0.264388 0.096695 -0.031941 0.045837 0.010348 -0.081446 -0.063575 0.036476 0.019189 0.027678 0.074095 -0.008685 -0.039722 0.099734 -0.154761 0.156717 0.104058 -0.038913 0.109576 -0.026596 -0.022125 -0.076039 -0.006699 0.177599 0.073225 -0.198382 0.065962 -0.052948 -0.141558 -0.019692 -0.023152 0.015640 -0.091864 -0.047973 -0.040107 0.156236 0.128642 -0.123434 -0.074601 0.013760 -0.006264 -0.035519 0.009157 0.030378 -0.068802 -0.080655 -0.048770 0.110432 -0.080339 0.216450 0.107192 0.042641 -0.114058 -0.054606 -0.147325 0.032612 0.206724 -0.030251 -0.081002 0.048391 0.091244 0.094617 -0.042787 -0.005395 -0.051936 0.061070 -0.083771 0.014731 -0.070860 -0.001354 -0.069820 -0.029828 0.117274 0.009842 0.080143 0.068702 -0.106262 0.039607 0.316159 0.096275 -0.003434 0.027042 -0.068563 -0.054084 -0.090350 0.045588 0.155316 0.014614 -0.136999 0.114185 0.044024 -0.092834 0.186642 -0.011784 0.193158 0.041921 0.010472 -0.159951 0.038514 -0.100667 0.115908 0.031166 -0.134676 0.194358 0.017154 0.068674 0.032811 -0.140346 0.119373 -0.166583 -0.124579 0.173451 0.030930 0.057206 0.133908 0.003281 0.048104 0.215966 -0.046489 -0.147339 -0.021112 -0.044340 -0.098247 -0.025784 -0.037078 0.035876 0.065102 0.001092 -0.082897 -0.023166 0.012105 0.160629 0.041997 0.054086 0.113592 -0.051170 -0.059357 -0.127482 -0.048944 -0.020442 0.003398 0.050697 0.072550 -0.072738 -0.138742 0.009884 -0.082844 0.125746 0.019716 0.017121 0.032943 -0.133041 0.027152 0.045968 0.008448 0.031484 -0.083779 -0.024377 -0.014080 -0.022217 0.166340 0.030370 0.211016 -0.047769 0.137605 0.021057 0.070407 0.041795 -0.044371 0.129357 0.226570 0.119020 -0.088392 -0.175492 0.220714 0.134975 -0.076894 -0.028598 -0.107856 -0.025614 0.087152 0.152799 -0.152106 0.015117 0.029523 -0.079205 -0.139294 -0.102601 0.141057 0.077816 -0.097691 0.128262 0.017472 -0.030825 -0.024374 0.189390 0.065673 0.047867 0.064339 -0.059875 0.098110 0.027717 -0.051041 -0.012252 0.049482 0.023935 -0.080637 0.040172 -0.034411 -0.042833 0.207388 0.016893 -0.030134 -0.081347 -0.127299 0.079539 0.002702 0.215505 -0.046092 -0.054091 -0.223055 -0.103148 0.176658 -0.019001 -0.082849 -0.034115 0.013431 0.033199 -0.049067 0.078024 0.104047 -0.103161 -0.076718 0.043385 -0.040478 0.006506 0.136344 0.130856 -0.006711 0.019315 -0.112812 0.016020 -0.124235 -0.045120 0.043588 0.045824 -0.030632 0.054116 0.022142 -0.050557 -0.133489 -0.167402 0.033204 -0.057325 -0.091318 -0.090451 -0.085500 -0.113704 -0.056863 0.130604 0.040220 -0.045906 0.072882 -0.050440 0.093858 0.264400 -0.053249 -0.093417 -0.046774 -0.008496 -0.016771 0.021896 0.048648 0.110470 -0.062060 -0.036336 0.078712 -0.107071 0.118683 -0.023952 0.026353 -0.027272 0.022312 -0.190387 -0.098243 0.000454 -0.076078 -0.041333 -0.071726 0.053412 -0.002880 0.223435 -0.014991 -0.037269 -0.002412 -0.064711 -0.013360 -0.093374 -0.014449 -0.067955 0.069490 0.143174 -0.055334 -0.101204 0.015623 0.012735 0.007595 0.048221 -0.015254 0.111472 -0.048971 -0.016200 -0.052419 0.074334 0.025244 0.179584 0.129272 0.022420 -0.099545 -0.071361 -0.228800 0.124110 0.112325 0.002157 -0.170325 0.083127 0.098435 0.131696 0.008397 -0.118638 -0.038735 -0.196191 0.208932 0.029701 -0.030714 0.049822 0.003570 -0.081593 -0.040402 -0.089965 -0.024827 0.142087 0.131333 0.163918 0.033457 -0.011725 -0.149681 0.006933 0.068884 -0.160546 0.025490 0.140539 0.021680 -0.170132 0.130070 0.068802 0.004350 0.004787 0.165608 0.064216 -0.224919 0.079621 0.005246 0.162977 0.106162 -0.077607 -0.021064 -0.058978 -0.164100 -0.119805 -0.032221 -0.054190 -0.099194 -0.000814 0.025638 0.147347 -0.059553 0.046749 -0.189710 -0.000217 -0.011655 0.129553 -0.015195 -0.069029 0.023802 -0.033360 0.029146 -0.136629 0.133972 0.001853 0.035218 0.027335 -0.156809 -0.238744 -0.034520 -0.165741 -0.007044 -0.054059 -0.112327 0.012176 0.046611 -0.146163 -0.020896 -0.026385 -0.084088 -0.030685 -0.014902 0.146313 0.039969 -0.049184 -0.025162 -0.122601 -0.069275 -0.083186 -0.000007 0.016134 -0.019618 0.017671 0.168470 -0.229494 0.028654 0.076676 0.111771 0.190847 0.118372 -0.055464 -0.093881 0.094283 -0.056324 -0.129543 0.043742 0.007705 -0.097150 -0.059339 -0.050308 -0.075695 -0.160050 -0.017919 0.140639 0.131485 0.044746 0.106473 0.080140 0.020060 -0.138027 0.019220 -0.056502 -0.171707 0.000907 -0.000947 -0.007497 -0.101233 -0.108104 -0.059577 -0.002312 -0.007897 0.033908 0.074546 -0.000454 0.012061 0.155332 0.107805 -0.093543 -0.090013 0.049003 0.010561 -0.112855 -0.107197 -0.016872 0.082933 0.028377 0.052606 0.126812 -0.096870 -0.006925 0.074266
